<?xml version="1.0"?>
<opencv_storage>
<stage3>
  <maxWeakCount>12</maxWeakCount>
  <stageThreshold>-1.2338306903839111e+00</stageThreshold>
  <weakClassifiers>
    <_>
      <internalNodes>
        0 -1 1039 5.1094031333923340e-01</internalNodes>
      <leafValues>
        -4.6303501725196838e-01 6.8194067478179932e-01</leafValues></_>
    <_>
      <internalNodes>
        0 -1 121208 -8.3041479811072350e-03</internalNodes>
      <leafValues>
        5.6888771057128906e-01 -2.1647010743618011e-01</leafValues></_>
    <_>
      <internalNodes>
        0 -1 250 3.0874740332365036e-03</internalNodes>
      <leafValues>
        -3.8829466700553894e-01 3.4147647023200989e-01</leafValues></_>
    <_>
      <internalNodes>
        0 -1 141282 1.7724414356052876e-03</internalNodes>
      <leafValues>
        -2.8986239433288574e-01 4.3627035617828369e-01</leafValues></_>
    <_>
      <internalNodes>
        0 -1 4025 -2.7157068252563477e-01</internalNodes>
      <leafValues>
        7.1656233072280884e-01 -1.5775997936725616e-01</leafValues></_>
    <_>
      <internalNodes>
        0 -1 160131 -1.2462212704122066e-02</internalNodes>
      <leafValues>
        8.2006895542144775e-01 -1.2822628021240234e-01</leafValues></_>
    <_>
      <internalNodes>
        0 -1 83441 -1.7896935343742371e-02</internalNodes>
      <leafValues>
        4.4822102785110474e-01 -2.0697639882564545e-01</leafValues></_>
    <_>
      <internalNodes>
        0 -1 121720 -3.5177129320800304e-03</internalNodes>
      <leafValues>
        3.8953775167465210e-01 -2.1516671776771545e-01</leafValues></_>
    <_>
      <internalNodes>
        0 -1 48634 -1.3598519563674927e-01</internalNodes>
      <leafValues>
        7.6240062713623047e-01 -1.4112028479576111e-01</leafValues></_>
    <_>
      <internalNodes>
        0 -1 126807 -7.7066615223884583e-02</internalNodes>
      <leafValues>
        5.7287079095840454e-01 -1.5808983147144318e-01</leafValues></_>
    <_>
      <internalNodes>
        0 -1 139130 -6.5693687647581100e-03</internalNodes>
      <leafValues>
        5.4947251081466675e-01 -1.9022230803966522e-01</leafValues></_>
    <_>
      <internalNodes>
        0 -1 99955 -3.4787185722962022e-04</internalNodes>
      <leafValues>
        3.5053896903991699e-01 -3.2182240486145020e-01</leafValues></_></weakClassifiers></stage3>
</opencv_storage>
