<?xml version="1.0"?>
<opencv_storage>
<stage24>
  <maxWeakCount>31</maxWeakCount>
  <stageThreshold>-8.5588270425796509e-01</stageThreshold>
  <weakClassifiers>
    <_>
      <internalNodes>
        0 -1 92668 1.7302103340625763e-02</internalNodes>
      <leafValues>
        -1.1407407373189926e-01 4.3809524178504944e-01</leafValues></_>
    <_>
      <internalNodes>
        0 -1 100047 -6.4162029884755611e-03</internalNodes>
      <leafValues>
        4.7666665911674500e-01 -1.0972461849451065e-01</leafValues></_>
    <_>
      <internalNodes>
        0 -1 143883 -6.5517183393239975e-03</internalNodes>
      <leafValues>
        2.2698256373405457e-01 -2.2962605953216553e-01</leafValues></_>
    <_>
      <internalNodes>
        0 -1 73912 5.1130168139934540e-04</internalNodes>
      <leafValues>
        -2.0903915166854858e-01 2.4729347229003906e-01</leafValues></_>
    <_>
      <internalNodes>
        0 -1 52388 -2.6965986471623182e-03</internalNodes>
      <leafValues>
        3.5709521174430847e-01 -1.3822411000728607e-01</leafValues></_>
    <_>
      <internalNodes>
        0 -1 72859 4.5312993228435516e-02</internalNodes>
      <leafValues>
        9.0189628303050995e-02 -8.9362394809722900e-01</leafValues></_>
    <_>
      <internalNodes>
        0 -1 123736 2.0722733438014984e-01</internalNodes>
      <leafValues>
        -9.1650038957595825e-02 9.1064023971557617e-01</leafValues></_>
    <_>
      <internalNodes>
        0 -1 75531 -1.3397866487503052e-01</internalNodes>
      <leafValues>
        3.7984406948089600e-01 -7.9522177577018738e-02</leafValues></_>
    <_>
      <internalNodes>
        0 -1 118977 5.2719831001013517e-04</internalNodes>
      <leafValues>
        4.5349720865488052e-02 -6.9793319702148438e-01</leafValues></_>
    <_>
      <internalNodes>
        0 -1 152293 2.6054307818412781e-02</internalNodes>
      <leafValues>
        -1.2047602981328964e-01 3.6214610934257507e-01</leafValues></_>
    <_>
      <internalNodes>
        0 -1 133201 1.2718663550913334e-02</internalNodes>
      <leafValues>
        -1.2081611901521683e-01 4.3812358379364014e-01</leafValues></_>
    <_>
      <internalNodes>
        0 -1 131554 -2.7998343575745821e-03</internalNodes>
      <leafValues>
        -3.9213240146636963e-01 1.5947903692722321e-01</leafValues></_>
    <_>
      <internalNodes>
        0 -1 69206 -4.3460251763463020e-03</internalNodes>
      <leafValues>
        5.6582963466644287e-01 -1.3265560567378998e-01</leafValues></_>
    <_>
      <internalNodes>
        0 -1 34987 2.8953159926459193e-04</internalNodes>
      <leafValues>
        1.9290894269943237e-01 -2.3261040449142456e-01</leafValues></_>
    <_>
      <internalNodes>
        0 -1 12581 -8.3309262990951538e-03</internalNodes>
      <leafValues>
        2.9905867576599121e-01 -1.7519906163215637e-01</leafValues></_>
    <_>
      <internalNodes>
        0 -1 70708 -2.0929621532559395e-03</internalNodes>
      <leafValues>
        3.2362630963325500e-01 -1.3823895156383514e-01</leafValues></_>
    <_>
      <internalNodes>
        0 -1 93231 2.5179957970976830e-02</internalNodes>
      <leafValues>
        -7.1704983711242676e-02 7.4345588684082031e-01</leafValues></_>
    <_>
      <internalNodes>
        0 -1 145624 -8.5537918494082987e-05</internalNodes>
      <leafValues>
        2.9425713419914246e-01 -1.4232344925403595e-01</leafValues></_>
    <_>
      <internalNodes>
        0 -1 106802 1.6554904868826270e-04</internalNodes>
      <leafValues>
        1.2177178263664246e-01 -3.6074751615524292e-01</leafValues></_>
    <_>
      <internalNodes>
        0 -1 60605 -2.3748894454911351e-04</internalNodes>
      <leafValues>
        2.1194446086883545e-01 -2.1674287319183350e-01</leafValues></_>
    <_>
      <internalNodes>
        0 -1 31207 1.3786053750663996e-03</internalNodes>
      <leafValues>
        2.4804195761680603e-01 -1.9512151181697845e-01</leafValues></_>
    <_>
      <internalNodes>
        0 -1 48341 -6.2543940730392933e-03</internalNodes>
      <leafValues>
        2.0127107203006744e-01 -2.6171037554740906e-01</leafValues></_>
    <_>
      <internalNodes>
        0 -1 24740 3.2892747549340129e-04</internalNodes>
      <leafValues>
        -1.1210346966981888e-01 4.2676332592964172e-01</leafValues></_>
    <_>
      <internalNodes>
        0 -1 135180 1.3623900013044477e-03</internalNodes>
      <leafValues>
        -1.3611952960491180e-01 3.8863453269004822e-01</leafValues></_>
    <_>
      <internalNodes>
        0 -1 106781 -5.1357601769268513e-03</internalNodes>
      <leafValues>
        3.5364115238189697e-01 -1.6075243055820465e-01</leafValues></_>
    <_>
      <internalNodes>
        0 -1 75757 1.1105504818260670e-03</internalNodes>
      <leafValues>
        1.4427523314952850e-01 -3.6134871840476990e-01</leafValues></_>
    <_>
      <internalNodes>
        0 -1 38134 1.2790096923708916e-02</internalNodes>
      <leafValues>
        -2.0280526578426361e-01 2.4718491733074188e-01</leafValues></_>
    <_>
      <internalNodes>
        0 -1 98203 -1.0050906799733639e-02</internalNodes>
      <leafValues>
        4.5875445008277893e-01 -1.2323839217424393e-01</leafValues></_>
    <_>
      <internalNodes>
        0 -1 4101 8.3581395447254181e-03</internalNodes>
      <leafValues>
        1.3770312070846558e-01 -3.4813126921653748e-01</leafValues></_>
    <_>
      <internalNodes>
        0 -1 9270 -1.9762627780437469e-02</internalNodes>
      <leafValues>
        2.7438992261886597e-01 -1.7664709687232971e-01</leafValues></_>
    <_>
      <internalNodes>
        0 -1 89624 1.7656380310654640e-02</internalNodes>
      <leafValues>
        -1.7000733315944672e-01 2.5179398059844971e-01</leafValues></_></weakClassifiers></stage24>
</opencv_storage>
