<?xml version="1.0"?>
<opencv_storage>
<stage17>
  <maxWeakCount>27</maxWeakCount>
  <stageThreshold>-7.2796601057052612e-01</stageThreshold>
  <weakClassifiers>
    <_>
      <internalNodes>
        0 -1 98482 -1.2350950390100479e-02</internalNodes>
      <leafValues>
        3.0331754684448242e-01 -2.4406047165393829e-01</leafValues></_>
    <_>
      <internalNodes>
        0 -1 134003 7.1713011711835861e-03</internalNodes>
      <leafValues>
        -1.4907863736152649e-01 3.5394614934921265e-01</leafValues></_>
    <_>
      <internalNodes>
        0 -1 16643 1.8680572509765625e-02</internalNodes>
      <leafValues>
        8.5073441267013550e-02 -5.7208037376403809e-01</leafValues></_>
    <_>
      <internalNodes>
        0 -1 51797 -1.5966613590717316e-01</internalNodes>
      <leafValues>
        -5.7766783237457275e-01 8.5514537990093231e-02</leafValues></_>
    <_>
      <internalNodes>
        0 -1 10065 7.4261799454689026e-03</internalNodes>
      <leafValues>
        -1.3267074525356293e-01 3.3773738145828247e-01</leafValues></_>
    <_>
      <internalNodes>
        0 -1 67442 -2.7950918301939964e-02</internalNodes>
      <leafValues>
        -7.4981713294982910e-01 4.1578717529773712e-02</leafValues></_>
    <_>
      <internalNodes>
        0 -1 22895 2.6487957686185837e-02</internalNodes>
      <leafValues>
        -6.9120012223720551e-02 6.5151578187942505e-01</leafValues></_>
    <_>
      <internalNodes>
        0 -1 118034 5.3304503671824932e-03</internalNodes>
      <leafValues>
        -2.3474857211112976e-01 2.4180740118026733e-01</leafValues></_>
    <_>
      <internalNodes>
        0 -1 73713 5.7185616344213486e-02</internalNodes>
      <leafValues>
        -1.5527862310409546e-01 3.8563370704650879e-01</leafValues></_>
    <_>
      <internalNodes>
        0 -1 3135 8.8877649977803230e-04</internalNodes>
      <leafValues>
        1.0670248419046402e-01 -5.6397289037704468e-01</leafValues></_>
    <_>
      <internalNodes>
        0 -1 143490 -6.5450728870928288e-03</internalNodes>
      <leafValues>
        2.0723751187324524e-01 -2.6536509394645691e-01</leafValues></_>
    <_>
      <internalNodes>
        0 -1 159306 1.4789737178944051e-04</internalNodes>
      <leafValues>
        2.1615657210350037e-01 -2.3451776802539825e-01</leafValues></_>
    <_>
      <internalNodes>
        0 -1 158445 3.9118793793022633e-03</internalNodes>
      <leafValues>
        -1.5846037864685059e-01 3.2088556885719299e-01</leafValues></_>
    <_>
      <internalNodes>
        0 -1 80762 -7.7025382779538631e-04</internalNodes>
      <leafValues>
        -7.6578146219253540e-01 7.5844123959541321e-02</leafValues></_>
    <_>
      <internalNodes>
        0 -1 89769 -9.4070413615554571e-04</internalNodes>
      <leafValues>
        3.9352557063102722e-01 -1.3120758533477783e-01</leafValues></_>
    <_>
      <internalNodes>
        0 -1 148320 -6.3414603937417269e-04</internalNodes>
      <leafValues>
        3.0025950074195862e-01 -1.7051018774509430e-01</leafValues></_>
    <_>
      <internalNodes>
        0 -1 148224 1.5460918657481670e-03</internalNodes>
      <leafValues>
        8.2273177802562714e-02 -4.7277402877807617e-01</leafValues></_>
    <_>
      <internalNodes>
        0 -1 161333 7.3312490712851286e-04</internalNodes>
      <leafValues>
        -7.4742704629898071e-02 6.2083023786544800e-01</leafValues></_>
    <_>
      <internalNodes>
        0 -1 143037 6.9282017648220062e-04</internalNodes>
      <leafValues>
        1.1400935053825378e-01 -4.4363498687744141e-01</leafValues></_>
    <_>
      <internalNodes>
        0 -1 76320 4.3901798198930919e-04</internalNodes>
      <leafValues>
        1.9555673003196716e-01 -2.6334309577941895e-01</leafValues></_>
    <_>
      <internalNodes>
        0 -1 30783 4.8943828791379929e-02</internalNodes>
      <leafValues>
        -1.8325875699520111e-01 2.4853739142417908e-01</leafValues></_>
    <_>
      <internalNodes>
        0 -1 116567 -1.5195421874523163e-03</internalNodes>
      <leafValues>
        3.5263770818710327e-01 -1.3953548669815063e-01</leafValues></_>
    <_>
      <internalNodes>
        0 -1 104128 -3.4052543342113495e-03</internalNodes>
      <leafValues>
        -3.4553179144859314e-01 1.7055793106555939e-01</leafValues></_>
    <_>
      <internalNodes>
        0 -1 96805 1.1734790168702602e-03</internalNodes>
      <leafValues>
        1.2113815546035767e-01 -4.6069091558456421e-01</leafValues></_>
    <_>
      <internalNodes>
        0 -1 39833 2.3378305137157440e-02</internalNodes>
      <leafValues>
        6.9047473371028900e-02 -6.6516900062561035e-01</leafValues></_>
    <_>
      <internalNodes>
        0 -1 38034 2.4722022935748100e-03</internalNodes>
      <leafValues>
        1.0608919709920883e-01 -3.8569250702857971e-01</leafValues></_>
    <_>
      <internalNodes>
        0 -1 14554 1.1995488777756691e-02</internalNodes>
      <leafValues>
        -2.5074228644371033e-01 1.9546394050121307e-01</leafValues></_></weakClassifiers></stage17>
</opencv_storage>
