<?xml version="1.0"?>
<opencv_storage>
<stage5>
  <maxWeakCount>14</maxWeakCount>
  <stageThreshold>-1.1863663196563721e+00</stageThreshold>
  <weakClassifiers>
    <_>
      <internalNodes>
        0 -1 8324 3.1087275594472885e-02</internalNodes>
      <leafValues>
        -3.8735178112983704e-01 5.5672824382781982e-01</leafValues></_>
    <_>
      <internalNodes>
        0 -1 157729 -1.9628580659627914e-02</internalNodes>
      <leafValues>
        4.8584941029548645e-01 -2.6547527313232422e-01</leafValues></_>
    <_>
      <internalNodes>
        0 -1 159172 1.1222871020436287e-02</internalNodes>
      <leafValues>
        -1.7369386553764343e-01 5.8248883485794067e-01</leafValues></_>
    <_>
      <internalNodes>
        0 -1 43168 7.5504253618419170e-04</internalNodes>
      <leafValues>
        -3.4220010042190552e-01 3.0298662185668945e-01</leafValues></_>
    <_>
      <internalNodes>
        0 -1 25893 -1.6115040052682161e-03</internalNodes>
      <leafValues>
        4.2170920968055725e-01 -2.2665683925151825e-01</leafValues></_>
    <_>
      <internalNodes>
        0 -1 91351 1.9674561917781830e-03</internalNodes>
      <leafValues>
        -2.6659592986106873e-01 3.5776484012603760e-01</leafValues></_>
    <_>
      <internalNodes>
        0 -1 144001 -8.4939441876485944e-05</internalNodes>
      <leafValues>
        3.0238953232765198e-01 -2.8728660941123962e-01</leafValues></_>
    <_>
      <internalNodes>
        0 -1 6619 -8.4281697869300842e-02</internalNodes>
      <leafValues>
        8.5186642408370972e-01 -1.3858227431774139e-01</leafValues></_>
    <_>
      <internalNodes>
        0 -1 126809 -4.1999664157629013e-02</internalNodes>
      <leafValues>
        4.4702103734016418e-01 -2.5172209739685059e-01</leafValues></_>
    <_>
      <internalNodes>
        0 -1 59778 -1.1293479474261403e-03</internalNodes>
      <leafValues>
        3.4407186508178711e-01 -2.6412162184715271e-01</leafValues></_>
    <_>
      <internalNodes>
        0 -1 118027 1.3821977190673351e-03</internalNodes>
      <leafValues>
        -2.3738396167755127e-01 3.5958585143089294e-01</leafValues></_>
    <_>
      <internalNodes>
        0 -1 144275 2.0122513175010681e-02</internalNodes>
      <leafValues>
        -2.2220250964164734e-01 5.5747437477111816e-01</leafValues></_>
    <_>
      <internalNodes>
        0 -1 14431 8.0520496703684330e-04</internalNodes>
      <leafValues>
        -1.7739205062389374e-01 4.0246236324310303e-01</leafValues></_>
    <_>
      <internalNodes>
        0 -1 144115 8.3023672923445702e-03</internalNodes>
      <leafValues>
        9.8758697509765625e-02 -8.5613834857940674e-01</leafValues></_></weakClassifiers></stage5>
</opencv_storage>
